{
  "metadata": {
    "model_name": "Concrete Strength AI",
    "author": "Moh Fahri Ramadhan",
    "date_created": "2026-05-06 06:19:28",
    "architecture": "8-64-32-3 (ReLU-Softmax)"
  },
  "performance": {
    "accuracy_test": "90.29%",
    "accuracy_train": "99.76%",
    "overfitting_gap": "9.47%"
  },
  "scaler_params": {
    "mean": [
      282.90122572815534,
      73.4733373786408,
      54.23172330097089,
      181.35067961165043,
      6.180358009708734,
      971.4462257281564,
      774.1367961165049,
      44.484223300970875
    ],
    "std": [
      106.07188313966012,
      85.03575808767987,
      63.90416320699005,
      21.72656072185065,
      5.909663669255842,
      78.33681504695907,
      81.42298704808246,
      61.97599553811496
    ]
  },
  "weights": {
    "W1": [
      [
        0.9392198424312477,
        0.24734370432925573,
        0.6367861182994908,
        0.9997108886705378,
        -0.09438879657665804,
        0.6582280531225502,
        1.0352254046866123,
        0.6381930973651241,
        -0.146667172575812,
        -0.1223325275722433,
        -0.053432974913149266,
        -0.43827790299291025,
        0.7408385212309478,
        -1.0357835115099951,
        -1.072538074664365,
        -1.4541776331507086,
        -0.7179870050695594,
        1.2127512727802274,
        -0.6183021719327293,
        -0.46694699327068867,
        1.2667731033279097,
        1.5502314610693053,
        0.2770531498081534,
        -0.7441690140669042,
        -0.6193813056917215,
        0.2859138584534619,
        -1.1121494345238991,
        0.596725551844876,
        -0.3204546382361049,
        0.1504418949777984,
        0.4154476622298708,
        1.2799368378798235,
        -0.035539112934481844,
        -1.4517725802797787,
        0.7598569052310742,
        -0.6279074323390192,
        0.21437856066754044,
        -0.9608105339626193,
        -1.1380939625229642,
        -0.0185235358243296,
        0.33609314005955554,
        -0.4384108128657055,
        0.20590973503330623,
        -0.6374050593466543,
        0.20835113073494368,
        -0.11999271797836747,
        -0.2456861702795255,
        0.4745263035763952,
        0.9374677410155147,
        -1.879090601039655,
        -0.602334610784146,
        -0.319212368683944,
        -0.37808788429469886,
        0.24377066095777417,
        0.6348999872445189,
        1.4022650000799548,
        -0.39603302725182565,
        -0.4175027162626284,
        0.3347614932484693,
        0.7448280626727649,
        -0.24207517727820163,
        -0.39286949884199757,
        -0.466593137421786,
        -0.5480283191360924
      ],
      [
        0.9018765913519708,
        1.144102328669331,
        0.23634556563302403,
        0.7621139393440195,
        -0.0815460422921978,
        0.08669036109325787,
        0.06779668377727384,
        0.8061964169853333,
        0.12200466865201555,
        1.198064228768619,
        -1.981943969371985,
        0.4257747197461518,
        0.47616690272448786,
        0.49470838747029855,
        0.41050205567191633,
        -0.27012105952858395,
        -0.21162580838197131,
        -0.5526960078534832,
        1.1292923690143515,
        -0.7362167891084619,
        -0.9733802001669729,
        0.12557265875968215,
        1.2489376493974895,
        0.2032113375293471,
        -0.10100528348251293,
        0.5537813512851254,
        0.05586743051304145,
        0.948728933016454,
        -0.085788056787936,
        0.10019993900231668,
        0.19327153940262898,
        -1.18648057632403,
        0.36181889531704464,
        -0.1291273857869099,
        0.37474136528196283,
        0.2984773523402925,
        -0.9019399331731871,
        -0.4880381619863318,
        0.015240997211622115,
        -0.047967208549837374,
        -0.5063486709261299,
        -0.15101389102867357,
        1.3230589034128022,
        -0.7353930627851081,
        0.6934239296361029,
        -0.3382814746970403,
        -1.3547943108591458,
        0.1961817766646511,
        0.6862701062433751,
        1.7052305748686878,
        -0.038261124097238905,
        0.285040374416946,
        0.6659307810547916,
        -0.5883999265235961,
        1.1215312909024986,
        0.2859265454895238,
        0.026233784715006696,
        -0.7249226834989335,
        1.169925769234731,
        -1.3683755103056416,
        0.33164491316756334,
        1.511766298921071,
        -0.3058002807571051,
        0.0643435516190725
      ],
      [
        -1.10847274604516,
        -0.16430337803430584,
        -1.1920733113147186,
        -0.13228091404421954,
        -0.6851697404442806,
        0.802655508096055,
        -0.27616166188325536,
        1.0003658912473483,
        -0.4838162157728291,
        -0.3765917855684724,
        0.3686575790972453,
        -0.5578343397239645,
        0.7355340731534789,
        1.4684560063589156,
        -0.8753520794158219,
        0.2541659186619566,
        -0.06195505030973476,
        0.09662998193281873,
        -0.9411036920037231,
        -0.22858562069178429,
        0.298326421256252,
        -0.6100880233680118,
        0.32502840575325476,
        0.11845473235063556,
        -0.41914906909374566,
        -0.26702188708532654,
        0.5589475681726734,
        -0.3183087159139258,
        1.2486751390843605,
        0.38313189388397706,
        -1.2501589361093968,
        0.2733037475997842,
        -0.46303960985135945,
        -0.410661807264317,
        0.08331037837521452,
        -0.6784633890316849,
        0.8735050121468775,
        0.005502510492456695,
        0.5129986166694033,
        1.5672179992045707,
        -0.019852456154577224,
        -0.25566518261297183,
        -0.0674637164407548,
        -0.6061207393913294,
        1.076974636622233,
        0.2744489178115295,
        0.43988944454982104,
        1.1986912923044795,
        0.14674203714213824,
        0.8220011298176667,
        -0.5322158331576172,
        1.6602717387490697,
        0.446790301194386,
        -0.40706042078817545,
        -1.312234073161189,
        0.7249096887227228,
        0.09826240446543869,
        0.7327369600726111,
        0.5849398267094988,
        0.19476364213090655,
        -0.584509427918567,
        -1.2032608263601816,
        -0.4787564422777719,
        1.085054223148975
      ],
      [
        -0.4284105928075804,
        -1.120266878204242,
        -0.32581402433578127,
        0.26456145126394215,
        -0.6522492333414283,
        0.07433606530999352,
        -0.29028643786237357,
        -1.290324256933718,
        0.48623631027860165,
        1.2456203336371552,
        0.8330766873659894,
        0.16667897713645763,
        -1.6314233685133985,
        -1.5329013527214332,
        -0.3396157154677919,
        -0.16431258778174004,
        0.5095018532275194,
        1.1730142649733093,
        0.00583816392141596,
        2.0196439559321937,
        0.3743454816592547,
        -0.8893039383397618,
        0.04035984446715298,
        0.6616512317095398,
        -0.5886216438628596,
        -0.44375826379767336,
        0.08090398960755471,
        0.6591295528446515,
        1.7490807532104824,
        -2.2381620682246615,
        0.4958439004897071,
        -0.9873020381153564,
        -0.5712051143715062,
        1.8265034924542023,
        0.286572496380888,
        -0.25095060334743763,
        -0.5649016987187969,
        0.17783464517145794,
        -0.7821533106796245,
        0.3648989488125735,
        0.2844964776213718,
        -0.12392742028697078,
        0.4770207495064415,
        0.522819235406251,
        -1.8698918295927964,
        -0.04695291461225651,
        -0.3241928279521607,
        0.728064138879317,
        -0.40882242949027475,
        0.24249895556579573,
        0.5329026190497058,
        -0.33922757221889843,
        -0.9243038026301119,
        -0.4056823503071646,
        -0.8692641248316434,
        -0.8521776562604781,
        0.8209361360767674,
        -0.02284258453484882,
        -0.5756394301367745,
        0.6072182471936475,
        1.1722253952341037,
        0.7892367969425141,
        -0.771483415152161,
        -0.632660056346559
      ],
      [
        1.416935444569562,
        -1.4168347157818264,
        -0.4710098176252556,
        0.9687832864431984,
        -1.5321594637157019,
        -0.9780777561361723,
        -2.6340882624799153,
        -1.8709843206761274,
        -0.5343503934921452,
        -1.4158658252181382,
        1.2933827771405535,
        -1.3045816659563967,
        -1.7469305487490534,
        -1.2724385416247461,
        0.6557046146701188,
        -1.253561212421767,
        1.1769560766034126,
        -3.5640716076436183,
        -1.8157296803351481,
        0.5911604248900721,
        -0.29575343887311695,
        -5.242162663396763,
        0.4793366705265985,
        0.20366911239848748,
        0.03771461916945116,
        0.3107563577259921,
        2.2074898928174482,
        -0.4564135488994251,
        0.5371473013930086,
        -2.9519715247115133,
        0.05668957763532347,
        -0.08488365994554604,
        0.4366358823465706,
        -0.43762306625497255,
        0.4906092017838653,
        -0.39354194766030054,
        -0.9394414639953662,
        0.4925361357322879,
        0.3010305275907797,
        -0.5936083448181386,
        0.6156250557686881,
        1.1753710698951958,
        0.15244983469351434,
        0.23917561288939074,
        -2.497656347389785,
        -0.09270882058380352,
        0.1972836507196356,
        0.4666914133868917,
        -0.13596652010367127,
        0.46484550723866563,
        1.3492456863911773,
        -1.167444668321198,
        1.2760284745424724,
        -1.0251085854992354,
        -0.1381284350514763,
        0.9277206456233635,
        0.5524050187281875,
        1.5358234672849005,
        0.9899353387982235,
        0.3598662504929271,
        0.7031275057837586,
        -0.6440190176977518,
        0.6926346023051941,
        -0.6629384173619391
      ],
      [
        -0.8414711528349594,
        -0.06336043717686754,
        -0.9895431411649872,
        1.5395662257804703,
        -1.179202853125369,
        -0.7809528289294905,
        0.4029888919964854,
        0.5164842740414306,
        0.2207117074666972,
        0.34664192753431755,
        -0.23044595044416874,
        -0.24278885898060923,
        -0.07768558908913803,
        -0.188116536555005,
        0.5555570290637245,
        1.1007102940564681,
        -0.4797047578397262,
        0.4102468363550189,
        -0.029741729761118937,
        0.21219722258004084,
        -0.7657288651550611,
        1.2865728833051855,
        0.7320918156690679,
        -0.2324105404799499,
        0.17900463519980855,
        -0.48873894566891696,
        -0.8680756093113112,
        -0.5300385561220042,
        -1.3405090073894914,
        -0.11216390775224823,
        0.4402873874356844,
        0.6061081291254876,
        0.2770012789938488,
        0.29007539829967777,
        0.08426207325913311,
        0.5194629208689906,
        -0.17008120206989177,
        0.017056560044636508,
        0.11402045880662126,
        0.20184900847250312,
        0.5513196180593278,
        1.8883672945663341,
        0.18741080008530953,
        0.5065228863249807,
        0.53255951110753,
        -0.4714764290018531,
        0.16787081294348125,
        0.23314828380543673,
        0.07881363289521519,
        -0.5276057028853756,
        -0.16541921886639405,
        -0.5777648207748104,
        0.8717407743713376,
        0.619193448680575,
        2.070849231231158,
        -0.4490179424147398,
        0.3494703667861564,
        -0.5824294611332947,
        1.8700597831210108,
        -0.45136660960853614,
        -1.1711431417425504,
        -0.6009830570990675,
        -1.3457101714658604,
        0.2785470525488335
      ],
      [
        -0.8206082324609134,
        -0.06382707267618569,
        0.6022030669824733,
        1.278689180243479,
        0.9452009720378657,
        0.20168147936562061,
        -0.7388397724278941,
        0.9294288619372775,
        -1.42607016221177,
        1.2382057134771114,
        0.9158296597211774,
        -0.6097849715591863,
        -1.1491155633966617,
        0.9813776488479362,
        0.3125813339500184,
        1.2454380250866333,
        -0.9025078585623741,
        -1.4651608924108144,
        0.291170017818622,
        0.47539801703270257,
        -0.47965109331552486,
        -0.9690430209183166,
        -1.1881234065579576,
        0.0579321925360161,
        -0.27043829064949493,
        0.3414124668678361,
        0.2621725760098367,
        -1.039956155507151,
        -1.3349429480897772,
        0.9142183721467131,
        0.26014235116693457,
        -0.44900114282931425,
        0.9892214220858191,
        -0.7381566466660249,
        0.2082517949480939,
        0.31417536484153186,
        1.349036884719131,
        0.5985221975796203,
        0.22012868231829352,
        0.8812050287446446,
        0.79579481127604,
        0.8955101639022961,
        -0.36603660656301384,
        0.9447312879823238,
        0.9154505920972161,
        -1.1366340396208672,
        -0.47698016950308736,
        -1.4868446667116348,
        0.38484374197281607,
        0.04652111311701855,
        0.7916690365152067,
        -0.19496297432116672,
        1.148513328315383,
        -0.8187833542377438,
        -1.1877644153096478,
        -0.1997555170066497,
        0.20033329701640273,
        -0.19951356942769635,
        -1.344320193133745,
        -0.23872487969291728,
        -0.4206672694497876,
        1.100834600198908,
        0.9721630461986236,
        -0.26835603833242533
      ],
      [
        0.7018742566188524,
        -1.0812769905622548,
        -0.04583316461439012,
        1.5515146269329652,
        -1.549147298065692,
        0.6337428673939159,
        -0.02641822221123029,
        0.03065513893565753,
        0.15253657199350454,
        -1.221685192880067,
        -0.37678570729182514,
        -2.4742559878257424,
        0.8318135892334401,
        -0.8860381150243163,
        -0.2903860620076692,
        0.5521226071115642,
        -0.810452772273633,
        0.09935257477296629,
        1.4414831323285773,
        0.8697679990227614,
        -0.5683599898903412,
        -0.9265250383669877,
        0.09433400807052986,
        -2.6723357058133415,
        -1.8070160065793572,
        1.0300116877439673,
        1.2067110910588739,
        0.06864115230895763,
        0.5327131906376485,
        0.20704174005897846,
        2.374022742440176,
        0.5515885991151996,
        -0.0900936936599592,
        -0.5057686327504497,
        -2.787429056380249,
        0.9429611657357247,
        -0.42745489425081445,
        -0.7915419631828889,
        -0.9722665798885397,
        -0.2275065958735355,
        0.8487870749066263,
        0.8645498965452769,
        0.44663380593968516,
        1.6823440741527713,
        0.023561826440467202,
        -1.2255137412511283,
        0.9745259459075761,
        0.49979583113203513,
        -2.1861826122171997,
        -0.32238713295426624,
        -1.0381708875950664,
        -1.1757757863002498,
        0.7650247275067624,
        0.945661853762238,
        -0.33571923118141744,
        0.16878354374795376,
        -0.36006619290786757,
        -1.3995117754120487,
        -0.5564635495239224,
        -1.4224049810543447,
        -0.9708261237321888,
        0.10383228865904053,
        0.5427676968108756,
        0.23541803364199218
      ]
    ],
    "b1": [
      0.17861833389226087,
      0.2513386953734938,
      0.16014362740374194,
      0.30505825707568546,
      0.10935946398516826,
      0.394893123371459,
      0.1823197563074315,
      0.4395296163137879,
      0.24837496473332127,
      0.046882890945047564,
      0.15431329133558522,
      0.1634713682244094,
      0.3618539643615089,
      0.921038051508728,
      -0.9779108166573449,
      -1.115384733148046,
      -0.828727753151815,
      1.0073835086398895,
      0.7284315869849592,
      0.5750749884279615,
      0.46527302903174694,
      0.6532986037405218,
      0.5574637212684114,
      0.0523572308538068,
      -0.1400524587387651,
      0.5475301093104212,
      -0.23820649088920368,
      -0.15536864901407949,
      0.740365991264603,
      0.44719795757553304,
      0.5756749026636593,
      0.6514663537277158,
      0.2027791880953811,
      0.9332681802243957,
      -0.9117323352220541,
      0.2578139542320581,
      0.07883168325510526,
      -0.05447999340163165,
      0.17341777553426527,
      0.6319197813300245,
      0.5071106565429863,
      0.6462611121166043,
      0.5544691493726008,
      -0.12569644657007067,
      0.17630855251407074,
      -0.3088027486107244,
      0.2387039054742166,
      0.5644816815073567,
      -0.6348318987387832,
      0.14477176150987506,
      -0.05450154657682246,
      -0.1939295318880794,
      0.21132554713305027,
      0.07056413581939959,
      -0.018405038670103967,
      0.6357085917406102,
      -0.003045741735538952,
      -0.6859626434167593,
      0.3495332815579011,
      -0.34445336897351436,
      0.1412443282499691,
      0.6262685722848135,
      0.20679630493735696,
      -0.29402370013657436
    ],
    "W2": [
      [
        1.0529323427214619,
        -0.3413212819178723,
        -0.09505921469568865,
        0.3323658176502651,
        0.2552352245082021,
        0.06826407752649827,
        0.2433366354370568,
        0.1607929446058578,
        0.05071959390559081,
        -0.0039203170680628925,
        -0.05486274174641232,
        0.2513498950588638,
        -0.528764091901315,
        -0.9750124038148941,
        -0.81007803530232,
        0.09114114130404805,
        0.2064115174817679,
        -0.017371800553336036,
        0.12525457568240206,
        -0.41198839285150995,
        0.2543469376721687,
        -0.02609144880172045,
        -0.12097569679129913,
        0.09345015711337987,
        -0.29930648446275776,
        0.1463287698403271,
        0.17126161055729777,
        -0.5090027180469393,
        0.22156650929567503,
        0.1736073050952834,
        1.177505986861096,
        0.7161227283244537
      ],
      [
        -2.4711291097322974,
        0.24789355858491555,
        0.7776044998680255,
        -0.01372111042128073,
        0.28569466270474897,
        0.4258095966468768,
        -0.5252757825796952,
        0.9797882091453228,
        0.24130323894238812,
        -0.051547779291367904,
        0.21096329827262472,
        -0.5805353406573018,
        0.3826075384981847,
        0.6525115830183025,
        0.11983973475155031,
        -0.7854578030442239,
        -1.091173558804074,
        0.30607739314273535,
        -1.9265561808463652,
        0.1374307723267641,
        0.3926797170128297,
        -0.36036918129340945,
        -1.808720188964001,
        0.05171258848734401,
        -0.42236708752881963,
        -0.11521003606867032,
        0.5298454018449814,
        0.5507420409542984,
        0.29822185960666714,
        -0.13237580365355356,
        0.13024554056586451,
        -0.16181655757993574
      ],
      [
        -0.15943035040770895,
        0.30333180587715136,
        -0.017056609263236374,
        -0.0420692002880698,
        -0.10907671229789802,
        0.14165067472981246,
        -0.46232859241809293,
        0.7430729509609336,
        0.02090245893263524,
        0.08255893231811402,
        -0.15031117943141392,
        -0.22245775154027406,
        0.15695998348912663,
        -0.13351142444628777,
        -0.1379919751472224,
        -0.2966865745726196,
        -0.4315227843681412,
        0.18441525625222335,
        -0.6761046894738016,
        0.3150822303636697,
        -0.23188887596401173,
        -0.15941961227440193,
        -1.5426794845074863,
        0.2691540404286129,
        0.6928506101087084,
        -0.1380099259893847,
        0.6829772337289937,
        0.5158775016909809,
        0.3047505412307331,
        -0.03093691194076867,
        0.14992163104118364,
        -0.3723211842467012
      ],
      [
        0.8943363497114605,
        -0.3145430485229097,
        0.05556498004623095,
        0.06723431270306296,
        0.22990464706824498,
        0.03916643719168011,
        0.401346880419554,
        -0.07954953501164046,
        0.09206161919905409,
        0.08087713924622,
        0.10209969587761947,
        0.12101200345390888,
        0.30158425406363865,
        -0.4062830347389534,
        -1.0880179912757653,
        0.6541128103692303,
        0.8855665760898874,
        -0.0731415044222324,
        -0.07382677727192544,
        0.11566332495253441,
        0.28068867314653945,
        0.3237492127186105,
        0.8323519088108915,
        0.1535825727389508,
        0.09441668365323443,
        -0.03389904052330283,
        -1.3090867126153363,
        -0.24502832333042357,
        0.12057138722878973,
        0.048017769878995836,
        0.5382410809625824,
        -0.1262580887963311
      ],
      [
        0.7149035159680985,
        0.34209188458401,
        -1.0349725373253396,
        -0.05251476949725018,
        -1.847638196096414,
        -0.2179719839200912,
        -0.7285639181833217,
        -1.457958496928805,
        0.09430845267955278,
        0.14178313411500656,
        0.1512970344021901,
        0.7589375116361248,
        -0.36623316839539494,
        -0.39277407455820784,
        0.9927738710346871,
        0.7585872704635243,
        1.522628496955563,
        0.15032280102181556,
        1.4595956270123107,
        -0.025604826854300603,
        0.03199547738150463,
        0.14714524464654863,
        1.5547831076567524,
        -0.17591378021316312,
        0.043294096781392545,
        0.3601734771576081,
        0.07600016053010282,
        1.015029813227239,
        -0.3996939071030674,
        -0.16340267372758444,
        -0.0007368904327726486,
        -0.025374494828321947
      ],
      [
        -0.6168241852570321,
        0.21513530969679778,
        0.5260353579930775,
        0.0363366759999237,
        -0.2372337052685342,
        0.38471190885846146,
        -0.298153886365124,
        0.6325255305884044,
        0.07409866433751201,
        0.06021489919495397,
        -0.22182735834978085,
        -0.18044268425372842,
        0.24635269676950042,
        0.13385699609476287,
        -0.2849522318316447,
        -0.581974897315655,
        -0.6921512026089472,
        0.41903130377393594,
        -0.867327775829653,
        0.35776460581826547,
        -0.018867730713111448,
        -0.2822253301761487,
        -0.8846726668305274,
        0.4638392792370561,
        -0.02382637813320564,
        -0.7244769284729832,
        0.896602380721771,
        0.2812414307762678,
        0.704418239064123,
        -0.2586273657929089,
        0.17787648190176217,
        -1.1091583952726587
      ],
      [
        -6.886386557917711,
        0.605678962615731,
        4.322213760333324,
        0.015403585025431914,
        2.132365949939146,
        1.02766995740157,
        -0.6910489079000456,
        1.8014264508059068,
        0.23482725729614182,
        -0.032575331462497054,
        -0.3429541510840444,
        -1.6005467663587964,
        1.270527148500693,
        1.3907225088969553,
        -1.24804976650228,
        -2.680458542030903,
        -2.6634135865884296,
        0.8381266020780664,
        -6.359922712091824,
        0.5175485597115175,
        -0.5687688369799901,
        -1.625400574616023,
        -8.031225547357993,
        0.980278129534347,
        -0.30483771314538927,
        -1.3938973062900146,
        3.6933898635788287,
        0.2695341016713308,
        1.5090823547393082,
        -0.0543860500388744,
        1.5457618663339991,
        -4.0858207940465965
      ],
      [
        -2.928763755025894,
        0.8691830890391865,
        2.3409865011480053,
        0.08976924535106169,
        0.4979754739717989,
        0.6405116200624047,
        -0.26535714270743327,
        1.3325922950598994,
        0.09630382175915697,
        -0.05543718541855074,
        -0.2283792706278113,
        -0.8905114525720433,
        0.9977872314133172,
        0.6579798441246392,
        -0.6616845507610319,
        -1.8904779070687903,
        -1.2628620390229703,
        0.6565870550535039,
        -4.584051685698114,
        0.35585832674014867,
        -0.4628315733077845,
        -0.7732257610529446,
        -6.557213331418589,
        0.814725725409266,
        -0.08062919268058534,
        -1.0581221718330287,
        2.50813456687507,
        0.14672716075662717,
        1.162089574811105,
        -0.22700250826226198,
        0.9319015400788373,
        -3.116470170246747
      ],
      [
        0.23486944574552757,
        -0.0034161620095847518,
        0.34242861559569737,
        0.17882243953804722,
        -0.25722972831152957,
        0.0198106383942919,
        0.315951791203679,
        -0.5156749482793866,
        0.12499034985613515,
        -0.025390491977732896,
        0.04778667664625607,
        0.10833709418121003,
        -0.08824604239296609,
        -0.22666208682348318,
        0.22714576193886932,
        0.269782507406062,
        0.40369250630930703,
        -0.19949818047417664,
        -0.24448637466458886,
        -0.10439569235443968,
        -0.00939691995917496,
        0.07521166720362496,
        0.37831082244102954,
        -0.11095368543260133,
        -0.04490325658314742,
        0.09226594172484558,
        -0.3743106518455275,
        0.04377567705132182,
        -0.22473242116410666,
        0.1210087671323494,
        0.4747694743101924,
        0.21723372303311125
      ],
      [
        1.5622566898160437,
        -0.3026280416233849,
        -0.4564807458583343,
        0.11280867252316497,
        -0.30967772461206455,
        0.15288427977379057,
        0.34730655596290877,
        -0.49399302690826286,
        0.025155572574899785,
        -0.135581368504601,
        -0.13288642252981384,
        0.11278476999941844,
        0.4337334334541378,
        0.04620441332684193,
        0.210881679577592,
        0.22336755088779686,
        0.43415163248560634,
        0.030154093656113466,
        0.5115132020741583,
        -0.02182027354863589,
        0.1773337703928402,
        0.029039710773957478,
        0.3670442891889208,
        0.03928675696098028,
        -0.2107927738948408,
        0.11459921008549627,
        -0.3452578958834273,
        0.11265864525430058,
        0.247497737550541,
        0.4052296436365474,
        0.1292167165612002,
        -0.36070796515991443
      ],
      [
        0.38582892504521965,
        -0.13662259221656683,
        0.04738918520444531,
        -0.0126284696391016,
        0.4288047766139376,
        -0.40210697087027586,
        0.21548699419102454,
        0.09717588737711176,
        -0.0384968103674442,
        -0.029801605690265347,
        0.06821482050290317,
        0.24530215373583575,
        -0.266864871847829,
        0.042787552066493206,
        -0.004592577047501495,
        0.7908823262429115,
        0.3736919703686307,
        -0.17904286055615984,
        0.6686836013718562,
        -0.13948290329407642,
        -0.3848409505335735,
        0.45323868436455617,
        0.723016054518256,
        -0.26204901324463953,
        -0.2675691444929073,
        0.4405935979341994,
        -0.4559230884114494,
        -0.007538374088089502,
        -0.28072752038729676,
        0.585158340094186,
        0.5291552832262747,
        0.8466241444388241
      ],
      [
        0.17250718448430347,
        -0.5182029540983878,
        -0.10141317863354314,
        0.00016497275474631294,
        -0.4312802326179879,
        0.016044891762612905,
        -0.169292502235392,
        -2.246699394622854,
        0.15121166123419816,
        0.0281537044614028,
        -0.2299468585074478,
        0.49448903046095255,
        -0.44815335165440373,
        0.01536707322438442,
        0.5321638562781937,
        1.0632068669384866,
        1.3072739461942284,
        0.06294584118138713,
        0.6021583295046621,
        0.3405733841399428,
        1.6400681241205273,
        0.17715486699344463,
        0.6147207103942102,
        0.19050134086852305,
        0.4809129268736456,
        -0.1677784218154488,
        0.46809128245051185,
        0.5566231791346726,
        0.28148687699783664,
        0.18172952582202723,
        -0.19990129690199257,
        -0.2311730083827042
      ],
      [
        -0.48147391772037457,
        0.1577781570073557,
        0.8983773643476165,
        0.4153408999242745,
        0.39056858352711044,
        0.46602864073923295,
        -0.15760080844193952,
        1.530952640272579,
        0.45624736905150487,
        -0.046201514618269476,
        -0.21591872454569608,
        -0.2071918749992713,
        0.5054026310169405,
        1.1888114333623279,
        -0.8996917021840938,
        -0.9835936670956608,
        -1.1862225933389539,
        0.5851479605160487,
        -1.0271133265104706,
        0.36544950532465326,
        0.20073122174939498,
        -0.44604874682235773,
        -0.6843079123359497,
        0.5318935836941823,
        -0.44352380299873834,
        -0.502309223552044,
        0.644740615497157,
        -0.13951045349703234,
        0.822086499925761,
        -0.6037324767865268,
        -0.0151897352123709,
        0.3126678571368617
      ],
      [
        0.7445195773960963,
        0.6960333811211146,
        -0.6408368533353214,
        0.20856526358899982,
        -1.2017790357965192,
        -0.3600172529213301,
        0.5007419671769558,
        -0.1445952501532703,
        0.1183823862914375,
        -0.021940559522904912,
        0.16032328977543212,
        0.47614236624210543,
        -0.491337860926393,
        -0.2204274304112335,
        0.738384397554155,
        0.32079165947789173,
        0.7612105326546359,
        -0.1631185808155547,
        0.8434236602961005,
        -0.08720034831377152,
        -0.43586327305843464,
        0.7060205303174576,
        0.7330254148500391,
        -0.27324445066675884,
        -0.27945160962461063,
        0.2803926929868107,
        -0.6917063894202906,
        0.24016129724457236,
        -0.6238620038892984,
        -0.4137482105979769,
        -0.4002554664208286,
        0.40836459724601504
      ],
      [
        -0.7066487262129926,
        0.22449885638974437,
        -0.1389709610543285,
        -0.10340457335634601,
        0.04087508012100434,
        0.01647601319054477,
        -0.2803391789854606,
        0.5743955342922508,
        0.0248194182507659,
        0.08186450865868083,
        0.20828926849340876,
        -0.07466424754077108,
        -0.062421449114003734,
        0.07866017537650981,
        0.7833124916800527,
        0.23298354277392327,
        -0.6048671159110452,
        -0.5527212146819884,
        0.28920437329481447,
        -0.027014688092978214,
        -0.2162758937301326,
        0.18568649880689653,
        0.08930234821176074,
        -0.26666165122403523,
        0.5235808969742417,
        0.01743456113392537,
        -0.19247450701375407,
        0.47055877673641944,
        -0.03956175199512268,
        -0.23095861843598764,
        -0.20496133260764762,
        0.21742734560425647
      ],
      [
        0.42406814524230946,
        -0.2520268838294039,
        -0.7201719166428162,
        0.5042174791845203,
        -0.4712995173057598,
        -0.26617818662623327,
        -0.048807854545939805,
        -0.6083341843480544,
        0.3368052615753036,
        0.16028838464807302,
        0.18309572191632106,
        0.4761155248669116,
        -0.13799451137133323,
        -0.6402340466491858,
        0.5637705199384424,
        0.32620162817819226,
        0.8633045138424642,
        -0.16827890483079214,
        -0.045320479634423975,
        -0.41968572401072574,
        0.17130287917336828,
        0.6322531577720976,
        0.9186040065098733,
        -0.30788408621807506,
        0.016918072275264814,
        0.16843815389422337,
        -0.6800600305528905,
        0.5920365493861398,
        -0.4360637571919433,
        -0.3713301769979825,
        -0.5469800810890921,
        0.0599404456776217
      ],
      [
        1.661207471449426,
        0.2773990956181098,
        -1.5352219347122276,
        0.022803620633585358,
        -0.1935287638584913,
        -0.42807116844710874,
        0.09983633959624025,
        -0.3984490653705074,
        -0.06773369714441721,
        0.05013211925417696,
        0.1586888111214915,
        0.21391738575477115,
        -0.8314586495196279,
        -0.18702201067486834,
        0.6299315289214862,
        0.47144378026951156,
        0.30981502209356004,
        -0.339760346717719,
        1.5027338428444506,
        -0.041673225408981995,
        -0.26658498631181426,
        0.6127477296873121,
        2.886766279688246,
        -0.2635673075765286,
        0.056878333863943024,
        0.35252691076385184,
        -1.0444167013921355,
        0.1394751116527998,
        -0.4218228403838742,
        0.26028029400905367,
        -0.7792902141116814,
        1.8206528665534238
      ],
      [
        0.8426342051229089,
        0.07067312841738234,
        -1.006451177084652,
        0.3079529576178176,
        -0.7451563083062536,
        -0.1360256897242461,
        0.24990101530086622,
        -1.1746239212278369,
        0.2774088399231454,
        0.029209689020316166,
        0.15122847413676765,
        0.30946331536823796,
        -0.07108989858562872,
        -0.46516448660128773,
        0.6190672282223866,
        0.5719408636894248,
        0.9017173137768478,
        -0.5299841455135297,
        1.0074031365988128,
        -0.22083511850384827,
        -0.4515438853340968,
        0.4172843235562489,
        2.2372579845668645,
        -0.3798143347064774,
        -0.148143494841045,
        0.23525043357474945,
        -0.8640702288951365,
        0.27274164599969214,
        -0.5223586959070591,
        0.1934695901620697,
        -0.40636441336570445,
        1.5130751241119107
      ],
      [
        0.8270010781096834,
        -0.5501538643582622,
        -0.4634911239199933,
        -0.010827584631155272,
        -0.029140450409486124,
        0.030743298236346275,
        0.1926897829099218,
        -0.7410299354259478,
        0.042234783055875545,
        -0.02411347020058752,
        0.08229408729279468,
        0.18111247781344367,
        0.26767852908339834,
        -0.18793312384449398,
        0.01420710393482474,
        0.41354635001344164,
        0.7953889854956993,
        -0.16310099465448175,
        0.0458148606414535,
        -0.0947968589720363,
        -0.020702241911440284,
        0.14700109291427763,
        0.48787705887362415,
        -0.07660760733166912,
        -0.08952575691376674,
        -0.004648946669934063,
        -0.5923444835643827,
        -0.2096117722626353,
        -0.16672799836789087,
        0.16968931904201132,
        -0.09604303705825595,
        -0.7253827416403993
      ],
      [
        0.5998598866562819,
        -0.32184198999821206,
        0.33464686600155186,
        0.3074583102028587,
        -0.3066000305893671,
        0.20683660365497528,
        0.4194861159964427,
        -0.7727028374106119,
        0.004092283131450417,
        0.02695661825751756,
        0.04257601152191903,
        0.300698953011192,
        0.26384483465864833,
        -0.28730296971110086,
        -0.6532183983758115,
        0.1752294275873403,
        0.5857179933630439,
        0.02673141499648394,
        0.17811289386763907,
        -0.18029678451336212,
        0.805004329732061,
        -0.04269947930617743,
        0.05596299238992347,
        -0.08373330492600561,
        0.23156271325618696,
        -0.06947037173926465,
        -0.26244316914854415,
        -0.5534004779975787,
        -0.08792786064392653,
        0.33473473466712816,
        0.3125431934144951,
        -1.4708029173645647
      ],
      [
        0.23088564724311428,
        -0.2627908212797771,
        0.912392549036769,
        -0.19089855786750562,
        0.017618114621696053,
        0.6210209447101873,
        -0.22315175798056316,
        0.2638453408888804,
        -0.0012914033584645586,
        0.10942053075153109,
        -0.7139650538214548,
        -0.3274889174813205,
        0.44398460288758157,
        0.5378531840117935,
        0.5190582317315195,
        0.1439679277605775,
        -0.021258767550040615,
        0.6824156004529478,
        -0.23840671732194,
        0.48959113900253887,
        0.44327910719195784,
        -0.567884464962507,
        -0.4048487950404671,
        0.727350023241658,
        0.0663354745741653,
        -0.39340380019106946,
        0.23589802010329441,
        0.09614073823149698,
        0.8554463943619774,
        -0.0636649638183379,
        0.29713101707649064,
        -0.9341736638104698
      ],
      [
        2.712463077324842,
        -0.14585736680287595,
        -1.6352439933542238,
        -0.09844805783166741,
        -0.44003443558301597,
        -0.3999032368380493,
        0.16602067583435867,
        -0.7697741629635825,
        0.2910413278805786,
        -0.14094872715509768,
        0.12530772537794432,
        0.6969095805641943,
        -0.7062649456514661,
        -0.0960360758614122,
        0.15989149028443356,
        1.072128705712976,
        1.1704731651411666,
        -0.5440036408300016,
        1.5967461100079456,
        -0.21787831345152736,
        0.049801407368002135,
        0.7517651792247334,
        3.634637807268171,
        -0.5130713898139813,
        -0.5380927937742533,
        0.7041954088041799,
        -1.6022801428860303,
        -0.16300115562042458,
        -0.8090147613626599,
        0.20202046856125147,
        -0.28053098567771556,
        1.4402711629635256
      ],
      [
        0.7877408783630101,
        -0.07782606665524934,
        -0.0034600421943765695,
        -0.08878639305454691,
        -0.1348780838844295,
        0.12534438053875785,
        0.5964498742346115,
        0.6469439316170728,
        0.04799619613018858,
        -0.06606183641410626,
        0.10480455302804734,
        0.0591867148457229,
        0.6745390962669922,
        0.4748893298195523,
        -0.5994233261537111,
        -0.2605546715233183,
        -0.16628991668807921,
        0.5626594248762757,
        -0.41131349062258343,
        0.5130137693470146,
        0.7224749034629373,
        -0.1991216822857432,
        0.18695843164193815,
        0.7008239675872847,
        -0.054369907504477344,
        0.11441963664049747,
        0.30251526590230005,
        -0.18557852524996207,
        0.12477037615502534,
        -0.16352643720383186,
        0.1719237579601853,
        -0.14350085338205368
      ],
      [
        0.30746491518879165,
        -0.6621404356858889,
        -0.014771872365670981,
        0.0602524727409337,
        -0.9632778463668409,
        -0.051005586882731074,
        0.2369119857748946,
        -1.9438007154845245,
        0.019744273248424014,
        -0.068963449231375,
        -0.47135673475675205,
        0.5654320103395319,
        -0.5129009480900047,
        -0.010308339012969972,
        0.04463973033187863,
        0.5830215584882358,
        1.934789530037008,
        0.040923030547591985,
        1.2106983347090319,
        -0.08258728257534471,
        2.110193155187031,
        0.17809580279492096,
        0.3641280610185784,
        0.2776938714301694,
        -0.44645325348351234,
        -0.48614361808010015,
        0.10304245644559548,
        0.11619460401756421,
        0.31150310405188253,
        -0.03279110098664052,
        -0.3537452713477407,
        -0.6590516089742456
      ],
      [
        -1.0572381738917835,
        -0.14974337332378712,
        -0.1325308740557438,
        -0.007726213269551182,
        -0.5682144099436103,
        -0.2616266939814185,
        -0.33286763600987035,
        -0.5734631138563696,
        0.05835090569623384,
        0.0020307422755145156,
        0.054670960435893694,
        0.7708391659101602,
        -0.5461303338953637,
        0.3488040161091632,
        0.5545379444721068,
        0.5705229671507441,
        1.2457986433959702,
        -0.20486765549949834,
        0.9536490529626503,
        -0.39299639806869907,
        0.7248711142884071,
        0.32322861663277574,
        0.1336210545122367,
        -0.3633367310826149,
        -0.1327564586497771,
        -0.19733156001285918,
        -0.027125396216352862,
        0.27121117088705843,
        -0.28903840442845735,
        -0.2871821878185658,
        -0.5831047236128485,
        -0.03266003817990454
      ],
      [
        0.6805560539319955,
        0.10864140848630773,
        0.04182222986622005,
        0.029457219012159225,
        -0.14411528812967997,
        -0.011400204620515974,
        0.0973514353062012,
        0.22147199462707914,
        -0.000222267232950239,
        -0.034011083585420994,
        0.07176216093390535,
        -0.05397038135886748,
        0.034926494765578256,
        -0.5733995144274313,
        -0.4732213101510077,
        -0.09018994229722012,
        -0.5084542254838174,
        0.07593552725163515,
        0.07643922810604503,
        0.24825257306426943,
        -0.38633921858320963,
        0.27198250002672364,
        0.08415536461254317,
        -0.0937099669928954,
        -0.08922703438268342,
        0.06973838663336082,
        0.05014519844504695,
        -0.5078203296287878,
        0.00192343225713885,
        0.1270102241527617,
        0.5000276505710252,
        0.400571572818975
      ],
      [
        -0.8543863534860303,
        -0.25878525131778835,
        0.4926210155352765,
        -0.14524483183270331,
        0.9761259590624469,
        -0.12484824760817845,
        0.05275801170811189,
        0.38465547163880054,
        0.15195378866170264,
        0.1275252986433585,
        -0.0924282550264859,
        -0.5796594144933144,
        -0.6105987710854853,
        0.5142891441739863,
        -0.12702653447179346,
        -0.6152308081640945,
        -0.8186262159081671,
        0.4479744218011545,
        -1.5714182762897064,
        -0.025469003078365627,
        0.047916159087471794,
        -0.5837941631677348,
        -1.6524019935806544,
        0.34565472373467093,
        -0.315777918568496,
        -0.3048468295521929,
        1.1321240990308323,
        0.1545629008106736,
        0.39038023343536304,
        0.5220735599822461,
        1.3073864282424006,
        -0.2991823894134499
      ],
      [
        0.34165411047907446,
        0.293593605054359,
        -0.3186580328717945,
        0.28736161514265096,
        0.10903707459322297,
        -0.11309577995054075,
        0.38317005548102845,
        -0.1070966568718448,
        0.18360001308038856,
        -0.06887297520275099,
        0.22543693000881626,
        0.18231060767390816,
        -0.007688650093565849,
        -0.2988088904748434,
        0.26290199856621804,
        -0.3861128265808428,
        0.097858380817275,
        -0.045029350855898674,
        -0.4138050145386915,
        0.1222876520025756,
        -0.9384830767611965,
        0.07125633191548315,
        0.35545077997849994,
        -0.09962915670866107,
        0.2426448171644086,
        0.23954787683098344,
        0.491827837501586,
        0.3639715449291867,
        0.12078560345893244,
        0.02302103071924492,
        -0.42249784611202074,
        0.4002783968995756
      ],
      [
        -0.6731865490027207,
        0.244394801158255,
        0.3339157109994679,
        0.12460812695828909,
        0.48251541424105365,
        0.23801175904691674,
        0.2774098666281043,
        0.8401760076464387,
        0.016908595547804574,
        0.19345850015590768,
        0.0570749264211536,
        0.12452020199183937,
        0.4035481214603825,
        0.06386809870324946,
        0.47300542894871284,
        -0.6846281518772915,
        -1.2136067564600486,
        -0.13261288809468733,
        0.6258443651739455,
        0.04258225103769056,
        -0.11425584534158119,
        0.056306088088590174,
        0.15787942830606488,
        0.23810144348171192,
        0.5677271700273493,
        -0.12623908027233446,
        0.3353489994507747,
        0.6997079538234938,
        0.5585111351932643,
        0.476571734918085,
        0.06727841725807775,
        0.24217321573054545
      ],
      [
        2.3444046486246455,
        0.42557106996118316,
        -0.6309584460978791,
        0.3963459691340666,
        -1.7022798118392677,
        -0.16706307320445438,
        0.07638994802928277,
        -0.8696309366426617,
        0.11058692087143114,
        0.021815556949918314,
        0.041414543528363004,
        0.8226164874282587,
        -0.2332468197857239,
        -0.7689789402934695,
        0.13281385892454134,
        0.37519118788463235,
        1.5344049101431378,
        -0.2996105384369189,
        0.41508210201779455,
        -0.40809320318204123,
        0.1038529437933672,
        0.8383900729641148,
        1.1219638947439006,
        -0.20430590498446213,
        -0.23768355521771845,
        0.29700235530478525,
        -0.8432635791757411,
        -0.09659145449353553,
        -0.38421287833789114,
        -0.048911652738099796,
        0.2295108724499956,
        -0.009270033842377142
      ],
      [
        -0.061650195656285496,
        0.13455873888332723,
        -0.35149308232663024,
        0.160829066437599,
        0.40616548961173704,
        -0.15820711410014868,
        0.00040329755392989273,
        0.29177503123399107,
        0.12250112929536561,
        0.059745533049798946,
        0.5985919525850495,
        -0.19999025235539167,
        -0.18144138323746478,
        0.12801393673220687,
        -0.13686237012304928,
        -1.11317338087366,
        -1.163321330607832,
        -0.40106825723570466,
        -0.012423093573643114,
        0.1336101457450216,
        -1.663674701734888,
        0.1686332283721394,
        0.3905650315000089,
        -0.2265280058471979,
        0.4091407541989948,
        0.37308233464599677,
        -0.5543304116336045,
        -0.24414241122081964,
        -0.38266858114991653,
        -0.207572402726926,
        -0.7915882805452152,
        0.9678511486567812
      ],
      [
        0.26735568406237337,
        -0.015029587052487752,
        0.3668650944994976,
        0.1164625544353056,
        0.12894006848685255,
        0.5376654659649348,
        -0.1315893807948888,
        0.08585698995356612,
        0.06284309074408619,
        -0.14087178205371106,
        0.013493913080641755,
        -0.04082483201116223,
        0.8915047895679569,
        0.4041647635229102,
        -0.2456506397887929,
        0.30578786846383316,
        0.42131272760261856,
        0.2795497619739642,
        -0.1806896384212084,
        -0.14133324543634335,
        -0.19613007093458515,
        0.05450186938485651,
        0.12570894314787254,
        0.4101546908448751,
        -0.62515970891258,
        -0.3869126522292301,
        0.22194228081706113,
        -0.45719394989681705,
        0.4230434192142778,
        -0.12059192373934649,
        0.17410417281206386,
        -0.41245152012039676
      ],
      [
        -0.07822763810408812,
        -0.11891224723851503,
        0.37373746138990727,
        0.10899356166808431,
        -0.10638137563571623,
        0.059486394324425214,
        0.418014749234656,
        0.17580919168458495,
        0.03940737188725153,
        -0.020746083958883357,
        -0.15002680413626046,
        0.22844896774464035,
        0.05521635373569152,
        0.23455988351666607,
        -0.09458296837202537,
        0.14691862978762535,
        0.6872156081996668,
        0.025822599589510345,
        -0.08876601492181668,
        0.24155312187989436,
        0.2925734006814842,
        -0.08171153079311219,
        -0.634668136645401,
        0.15112215490394035,
        0.18412725874232092,
        -0.4006174520549078,
        -0.5732732260201162,
        -0.11922303359980499,
        0.4795050213611724,
        0.131324795449746,
        0.4783918234018725,
        -0.06252752139467217
      ],
      [
        -1.1098197536518002,
        0.2801887827774356,
        0.5203965217857686,
        0.009534880780369334,
        0.3960032659068435,
        0.5797444294234608,
        -0.0172478065587231,
        0.0016747314376319494,
        -0.25251247141624417,
        0.18633801718413356,
        0.13636687782081583,
        -0.2045291987503211,
        0.43853413851498757,
        -0.4766119636434624,
        -0.041262718750130704,
        0.06874955169683929,
        0.3006655568280228,
        -0.32963669850414407,
        0.06589312514262714,
        0.26151367505125,
        -0.09204389962864515,
        -0.19872681330643205,
        -1.556317157097034,
        0.014447974503238556,
        0.5812491793063527,
        0.05766071682922811,
        -0.452640013534389,
        -0.023277895937425658,
        0.17316166860101556,
        0.3538074805708405,
        0.057342070785461434,
        0.7066117301484248
      ],
      [
        -0.9567880901356005,
        0.4604263433795318,
        -1.7152321767275616,
        -0.10826397194356262,
        -0.33548593844314273,
        -0.9358562958484209,
        -0.7951594396711338,
        0.169867732765463,
        0.15732493641929218,
        0.004640204604509184,
        0.3213606933337435,
        0.06498650179530502,
        -0.361956759210167,
        0.40441656517529573,
        1.5487751606825952,
        0.9993206778755768,
        0.5720211332793421,
        -0.39806878109748633,
        1.3531495511301148,
        -0.40921735242309315,
        0.38056740973668224,
        0.19347005156645902,
        1.266924713655314,
        -0.5837826321119151,
        0.04486773088767472,
        0.4907320955323814,
        0.016941980514857135,
        0.7265158660503926,
        -0.5466524880818431,
        -0.12165639304085388,
        -1.575488655450054,
        0.17481663394227384
      ],
      [
        0.24785614611607026,
        -0.5206462655141086,
        -0.33783397155719436,
        0.09764377596624468,
        0.007161377545770469,
        -0.0029647468453738194,
        0.03316639345520456,
        -0.4482316201002634,
        0.07865555521570304,
        0.05615826152412561,
        0.055073765978988186,
        0.2439841128898808,
        -0.020005494133177523,
        -0.2771252097929104,
        -0.04238546387041192,
        0.3200211087314945,
        0.6833580637449768,
        -0.12464675950720981,
        -0.17528963235257217,
        -0.1681171728491651,
        0.2881550148693481,
        0.15061472016272284,
        0.2506193123606618,
        -0.05137354733282862,
        0.004485697622579508,
        -0.02754030401911381,
        -0.4303201408328117,
        -0.20404974668851042,
        -0.12151980532189119,
        -0.1325957306555036,
        0.0799576015187161,
        -0.7138608966603487
      ],
      [
        -0.5535614838671326,
        0.680091661788676,
        0.7469787877708096,
        0.029098241787858095,
        0.17971795937292354,
        0.2661962906610655,
        -0.17770643192291138,
        0.5319171356947725,
        -0.005773144641185177,
        0.07862732348174117,
        -0.02762503565446436,
        -0.3130015192734567,
        0.40242931817960725,
        0.4455379797948556,
        -0.08749540214185758,
        -0.665078947757185,
        -0.38854730951068256,
        0.3374887321932108,
        -1.0394060986102152,
        0.21231428427808402,
        -0.5412623766641045,
        -0.21637261096060645,
        -1.3480860879506966,
        0.38498876473928023,
        -0.2633221019975955,
        -0.32569286630054534,
        0.8780883900874661,
        0.31287484462066667,
        0.6308981581803658,
        -0.046688039090553426,
        0.3910008785970548,
        -0.039366533476443706
      ],
      [
        -0.7036596728165848,
        0.35275387079451437,
        0.10508604035148653,
        0.01838634342094811,
        0.1305142260810668,
        -0.16971920883698927,
        -0.10681524405853168,
        0.3124607383420775,
        0.06839329907431273,
        0.042123297885498096,
        0.1039472407736128,
        -0.16453560407250992,
        -0.31643850626790154,
        0.17535676888889296,
        0.35898053509392386,
        -0.10567325286650088,
        -0.26098465077016547,
        0.032821240590259,
        -0.05847660871497479,
        0.09201463226166197,
        -0.10033635272605859,
        -0.0796718607616056,
        0.5507436101464072,
        -0.03668015892795245,
        -0.03462815063463598,
        0.16649316480413623,
        0.11782624044361865,
        0.4513872092194994,
        -0.028004578999496883,
        -0.05478260662914529,
        -0.29069323021046656,
        0.712745297227746
      ],
      [
        0.26235617361721947,
        -0.04751037571326727,
        -0.33008269935821,
        0.12995900841722555,
        -0.3319574753826765,
        -0.26652019398754695,
        0.2687445188989922,
        -0.32849027214264803,
        0.041736512620833895,
        -0.028745345277966714,
        -0.025453915549044248,
        0.35958080265849535,
        -0.5355242262067452,
        -0.07005755531503166,
        0.5302120120789456,
        0.47746597846292504,
        0.37856941782128595,
        0.027674833315252313,
        0.8898266083446649,
        0.020047492748374415,
        0.05569271744549232,
        0.2681136811646007,
        0.34574059664654394,
        -0.0020270199334954373,
        -0.42029909071395605,
        -0.2648867312474511,
        0.13379661345371538,
        0.23781747565589473,
        -0.21491929373155563,
        -0.18878713784083592,
        -0.5076543871057363,
        0.11920041610095182
      ],
      [
        0.49791179757404497,
        0.264909461163808,
        -0.15366726415412643,
        -0.12834424997520336,
        -0.5305642272900141,
        -0.00011667248769910938,
        0.488301053494406,
        -0.06705942023553987,
        -0.05722627696243676,
        0.033128944082204716,
        0.014210783798667736,
        0.2691201598021751,
        0.2104312659591042,
        -0.14182423849780917,
        -0.5191596955423652,
        0.39034573831888825,
        0.5505365868972152,
        0.14406207767654328,
        0.40544036203278855,
        0.12509054967568595,
        0.4127831296883561,
        0.29282273902456635,
        -0.40086552711112083,
        0.03904568970237004,
        -0.07933295541806783,
        0.061584987288957234,
        0.0794694997657816,
        -0.13344699127732462,
        -0.0712647503526887,
        0.01367035530907086,
        0.1869916264051696,
        -0.38855966089744304
      ],
      [
        0.1429064629161101,
        0.022101290921794695,
        -0.2718053748831519,
        -0.016407185602936723,
        0.20252505602752846,
        -0.4841447470916771,
        -0.09769775656539792,
        0.3364762909408444,
        0.06569616382747234,
        0.09874320768714719,
        0.12467742660652595,
        -0.3551076572231191,
        -0.39693235267012045,
        -0.03976611834040771,
        0.25353885679519794,
        0.09545874881761202,
        -0.5699658223312799,
        -0.12709871178962556,
        0.13774027670780448,
        0.27764794515057417,
        0.10063839276687081,
        0.12792184585152055,
        0.5956925146932808,
        -0.18534665319388993,
        -0.0005566387517045819,
        0.11417469075446336,
        0.08751338801211311,
        0.28394884982508245,
        0.013368814236740797,
        0.07366321812112873,
        -0.09461081381664567,
        0.19766853431958512
      ],
      [
        -0.8155036475704505,
        -0.053308218901051266,
        0.18344863939201259,
        0.09568904508174636,
        0.8836512948770829,
        -0.0980046181695638,
        0.24577251970408204,
        0.6349286054039259,
        0.0764700305527924,
        0.10156237822647901,
        0.05961336075645151,
        -0.45273235362933695,
        -0.3416526179679731,
        0.3055616198076144,
        -0.0992796775877512,
        -0.602526760686891,
        -0.4016861535807992,
        0.07740080048158389,
        -0.9475929887193426,
        0.3055939991938732,
        -0.1069165195897195,
        -0.6569885699993843,
        -0.9392664901983667,
        0.1131742754258354,
        0.3081920987736333,
        -0.2541043980008775,
        0.3332409984185225,
        0.1224911534515161,
        0.39414074341542205,
        0.08648227925954599,
        -0.22879941264847606,
        0.16348069268247642
      ],
      [
        0.6907439045966454,
        0.08933576167552948,
        0.1419173149672371,
        0.07570486981272849,
        0.15498837965568638,
        0.14977499093496865,
        0.5578157284335444,
        -0.4964704622294694,
        0.003645626313655729,
        -0.08219155790549522,
        0.19486299491059458,
        0.13220487820965782,
        0.25154098861455504,
        -0.11234367842480596,
        -0.4874916756168984,
        -0.03955125746755494,
        -0.14516327321848327,
        0.10212158224129411,
        -0.31365179102637836,
        0.35702384716041147,
        -0.5370744403345744,
        -0.0790072511012652,
        -0.7237445512464029,
        0.0028825263274346205,
        0.5088975303647348,
        0.34547821393971045,
        -0.2259556123292927,
        -0.27461289010517637,
        0.14681949243629588,
        0.09185665662917857,
        0.15677708045519403,
        0.17595313822388178
      ],
      [
        -0.5022121966796281,
        -0.014989681045253962,
        -0.9125471986994239,
        0.14984367200538826,
        -0.05624042113222639,
        -0.36880943974562874,
        -0.609272124630202,
        -0.5856747232118422,
        0.2651952526035852,
        0.20528127317416195,
        0.31070921933137696,
        0.033446081678701854,
        -0.40459081172835126,
        0.10115733694853841,
        0.6401201722173361,
        0.020562124427468863,
        0.2166906983546147,
        -0.18892223617512735,
        0.13248597762512676,
        -0.137706081781998,
        0.05352611115108708,
        0.3000167651949323,
        0.9760080834608142,
        -0.2671881908936558,
        0.1391948951554596,
        -0.016854204052854753,
        -0.4077469653629302,
        0.5315554845549597,
        -0.3947196985860539,
        -0.26792102028978265,
        -0.801862798456854,
        0.3800359268270559
      ],
      [
        -1.1356330957076617,
        0.519423842733259,
        -0.4633218580952493,
        0.46108429712360993,
        -0.1857428211733465,
        -0.36501671819601217,
        -0.49341602806097073,
        0.651378685978974,
        0.17025275443760368,
        -0.02783671601636147,
        0.18377910924657923,
        -0.21333781839013424,
        -0.6498522143644998,
        0.24221824206647408,
        0.3641049807641974,
        -0.9540391725591266,
        -0.31096903764121386,
        -0.17026189704502992,
        0.13130725869874885,
        0.3391668246043475,
        0.0313911789584397,
        0.06678324816863858,
        1.2284936074842077,
        0.0041305354081737754,
        -0.14807623833208206,
        0.20695751519280128,
        0.24570832333815867,
        0.1224906028461497,
        -0.035587203761512635,
        -0.05937138768483866,
        -0.7009989478569286,
        1.976552711669212
      ],
      [
        -0.8717009318508967,
        -0.04334202703046862,
        -0.14182354260204227,
        -0.04048632713115072,
        -0.6975774661206664,
        0.40774688177559104,
        -0.10976929590472574,
        -0.9500640864906393,
        0.06796904863022167,
        0.03501448531395484,
        -0.16387478706679803,
        0.3309933795165432,
        -0.25339260143094017,
        0.03400266700289674,
        0.06786448228445384,
        0.5366668887216549,
        0.2987568124207303,
        0.0607404523438004,
        0.3685922862916759,
        -1.1169777376648133,
        0.4725153552257563,
        0.06339764493420587,
        -0.0379082403950229,
        -0.2083948975607851,
        -0.11738099908460004,
        0.03698085735634214,
        -0.6142773991290115,
        0.18231806508351028,
        -0.5077064455874152,
        -0.021103170614642126,
        -0.22538146924651917,
        -0.07826274404244137
      ],
      [
        0.11782120719140744,
        0.2332623653471037,
        0.3184579125873598,
        0.2894765195240286,
        0.2572057642626099,
        -0.009553018915703372,
        -0.1523240407582419,
        0.4768237094541409,
        0.17798574290478542,
        0.03287238085446565,
        0.08190929424695596,
        0.0032767589389138766,
        -0.16711608059317842,
        -0.014302903467274523,
        0.4249199328140964,
        -0.32511589494107906,
        -0.39566480208640764,
        -0.07003040536736485,
        -0.052168295144371934,
        -0.16021558930553706,
        -0.7627632684601715,
        -0.02384598023952281,
        -0.011783343477862411,
        -0.1411025850656549,
        -0.27639093163192147,
        -0.016422219499779882,
        -0.25554683714268606,
        0.1240602413422497,
        0.022172026424518338,
        -0.07273956364507224,
        0.2505212200933999,
        -0.02525218483149127
      ],
      [
        0.7488656911961729,
        -0.3544926961926508,
        0.6763155208393548,
        0.15985025955065596,
        0.00603482390642988,
        0.39852603629038247,
        0.4836452842428746,
        -0.21414516951640944,
        0.08917398683180694,
        -0.0996872057653834,
        0.002465656054652976,
        0.21295376280797523,
        0.5769867948668519,
        -0.1019331765109124,
        0.5606529448849813,
        -0.2582630604123987,
        0.2765901120303667,
        0.40747725520333444,
        0.16983871541888038,
        0.4416115406784221,
        0.5497980332588158,
        -0.2157904567608899,
        -0.13125712184636473,
        0.06715512496324043,
        -0.2779858318130466,
        -0.07365354464492183,
        0.1371311050299224,
        -0.14660715473371425,
        0.22689158503985826,
        0.14991947187207902,
        0.16786832532948018,
        -0.30498819136848376
      ],
      [
        -1.0267848343969117,
        0.6311506767700638,
        -0.938105483240166,
        -0.16720185650674865,
        -0.6889425356216609,
        -0.5605627950182779,
        -0.7720798216218252,
        -0.30213927973352006,
        0.17126154086074846,
        -0.010964715812992434,
        0.4456694142681872,
        0.450812230802269,
        -0.36527739152544997,
        0.32055977952899006,
        1.403856156906914,
        0.38858844871939735,
        0.467781017057081,
        -0.3466632883537186,
        0.2869837361833696,
        -0.522577171861436,
        0.7673684243428383,
        0.691992271915621,
        0.9470907408916357,
        -0.18522558848801882,
        -0.2734373059444051,
        0.6472733750363215,
        -0.42824285236946497,
        0.8993544645414011,
        -0.2721753571335645,
        -0.36973862950338604,
        -1.3171399383030693,
        0.09871640245601168
      ],
      [
        -0.2212634724845279,
        0.1751039164088612,
        -0.6466549740818185,
        -0.39452764399675716,
        0.03546606659298076,
        0.03446755229471465,
        0.2808352786736129,
        -0.010367085759833092,
        -0.072985395223749,
        -0.01018181570096342,
        0.07099833654468789,
        -0.07509958712405458,
        0.08251985465019185,
        -0.006884455426735987,
        0.2133342177969922,
        0.5986132441781422,
        -0.7566400627616318,
        -0.027541591402190202,
        -0.11122868828154028,
        0.506058280252622,
        0.27251998278856876,
        -0.382907390150184,
        0.1844229783379344,
        0.31135622438249533,
        -0.13210976137029698,
        0.3148587642727266,
        0.13730537121626252,
        0.25480457393974,
        0.11379759580165058,
        -0.23591401913626453,
        0.14798151112496807,
        0.004775588215468576
      ],
      [
        -0.5148843264924561,
        0.0570259760516783,
        -0.2639971902942255,
        0.04074980473042852,
        0.763229957212184,
        -0.04059709908702635,
        -0.08420449471318282,
        0.49486087882224417,
        0.08765915573466712,
        0.036330880880536674,
        0.34146211837188595,
        -0.08518584418634428,
        -0.4272159677307425,
        0.28237411638505094,
        1.3856838212766425,
        0.264516384247233,
        -0.007603226218160207,
        -0.16851968086193694,
        0.46309980543984597,
        -0.11884334137591929,
        -0.5244746404886861,
        0.3658500372645356,
        0.9899801009857618,
        -0.2994866093859525,
        0.19399782153034886,
        0.3213493707146224,
        -0.24683039886472932,
        0.15395450791189755,
        -0.15040166587837203,
        0.24164367925706517,
        -1.5275955141900162,
        0.7609784276281604
      ],
      [
        0.8808372933995141,
        -0.06649894837933884,
        -0.6842376918421005,
        -0.10404615085870432,
        -0.02160325831066797,
        -0.2727653661623479,
        0.20999511202893206,
        -0.4089774986194999,
        0.04904281849970513,
        0.07395736897369923,
        0.0812488533699628,
        0.2667264357929373,
        -0.35945699393709557,
        -0.5241965363776764,
        0.24514208024722298,
        0.49923399044078737,
        0.5885417078479567,
        -0.08817759864915478,
        0.5799577354658222,
        0.0548191319630279,
        -0.078147100608183,
        0.4980998983427871,
        0.23428669073033753,
        -0.13977320502119842,
        0.08798138284199747,
        0.08678281238475939,
        -0.5964322337213878,
        -0.03648932329508738,
        -0.3997499705182874,
        -0.2370636193834461,
        -0.21712610316206427,
        -0.04944083966308855
      ],
      [
        0.8182402854001801,
        -0.7984129379533889,
        0.6238572754235903,
        0.2479811622028735,
        -0.19386036476691615,
        0.0654322048747819,
        0.27095705174468393,
        0.01915295441910735,
        0.055460951612050315,
        0.07796684874007308,
        -0.33545263970944833,
        0.2608617366540965,
        0.2714513842088412,
        -0.6971590269918816,
        -1.1304967455511172,
        0.4652842981803164,
        0.9535084734551236,
        0.004180585937096404,
        0.27513640476721785,
        0.17800572221867705,
        0.7211908579620538,
        0.011145515018477102,
        0.4026045975025316,
        0.12014592083103703,
        0.62126861310197,
        -0.27360582554782337,
        0.17618875871079634,
        -0.11130138193659544,
        -0.017700676158663338,
        0.19615762703110415,
        1.0549444325652901,
        -0.0877050587391226
      ],
      [
        -0.4682663247946337,
        -0.20929311999808667,
        1.465103004248048,
        0.19914261338789035,
        0.36763845141579476,
        0.42202232282378827,
        -0.2354366977583447,
        0.2817414655535838,
        0.23141322006410206,
        0.013785665670249731,
        -0.036896552611270755,
        -0.24456954380508997,
        0.2047047084326021,
        0.18744854798243304,
        -0.666864626288163,
        -0.45521186895758103,
        -0.2810119746312286,
        0.35599097256592044,
        -0.7127136547237426,
        0.021916436017273,
        0.03873931773738809,
        -0.5729895222779697,
        -2.08606904610144,
        0.39483411260761525,
        -0.16469020332568718,
        -0.6329441040038666,
        0.2569925146559297,
        -0.14989136605978332,
        0.4603177278906557,
        -0.20212666207979685,
        0.14295036689332974,
        -2.0630918327642154
      ],
      [
        0.11996998647931914,
        0.23099159163371077,
        0.5438676023084186,
        -0.35407313045341127,
        0.2914248170593898,
        -0.07795893563729307,
        -0.08711251532412327,
        -0.10224569739862535,
        0.1352571156478815,
        -0.07482819454037097,
        0.13606196176204788,
        0.26326529894123296,
        -0.4073406715820088,
        0.10927037205142907,
        -0.5298300661801135,
        0.5146882421631338,
        0.39840928117561103,
        -0.1960917442697738,
        -0.8086689071701028,
        -0.0905577724848946,
        0.44525722587990746,
        0.3061819468054096,
        0.5003263300902817,
        -0.30560419299238,
        0.1726440653574021,
        0.47429032599539644,
        -0.9295838152578368,
        -0.041123633988619096,
        -0.2397662415944241,
        -0.4568611171330029,
        -0.022758805606303115,
        -0.08472305244957641
      ],
      [
        0.16094432040411702,
        -0.2695036793583439,
        0.14228478177406464,
        -0.3785140290641676,
        0.37625775784563686,
        0.34836698029160146,
        0.15225070670615212,
        0.4813315032235366,
        -0.25407180649175154,
        -0.14540625919845093,
        0.057523193612289227,
        -0.295373876821951,
        0.6025077402156912,
        0.21742662801051174,
        -0.501566978547185,
        -0.13454040489148153,
        -0.2476699377659921,
        0.46461491212094985,
        0.08137487133571968,
        0.4050203846952294,
        0.13112178382663967,
        -0.3142633390809112,
        -0.4561100425771349,
        0.4439638066671566,
        0.23019957745713854,
        -0.05054112138560904,
        0.520463916632337,
        -1.160453133220114,
        0.45881958863361294,
        0.2715023084013028,
        0.32559712218371284,
        0.04145205441770663
      ],
      [
        0.38010016785618933,
        -0.06218344466863528,
        0.022027678134227943,
        0.1146704116634233,
        -0.05429330599018088,
        0.11189405103009308,
        0.26951643919471635,
        -0.1279089747759805,
        -0.018613327646487765,
        -0.02369011288624375,
        -0.06370071393182852,
        0.12374250689427124,
        0.10879733842641134,
        -0.07353328340716253,
        -0.21756953083900776,
        0.22846340834349574,
        0.2119053249517404,
        0.024573748725470714,
        0.00038741123763268414,
        -0.06819130828215254,
        0.3364548956902651,
        -0.013413452729652534,
        -0.17013646627114623,
        -0.022317412752641094,
        0.029659344995289178,
        -0.022865221404313504,
        -0.2121325940299982,
        -0.08518509516184454,
        -0.049011943687943454,
        0.006450745574985331,
        0.11909366357125928,
        -0.7505583887747254
      ],
      [
        0.5390184220274432,
        0.0773252938360069,
        -0.9089992480377347,
        -0.30501206251401713,
        0.5702088088444969,
        -0.462252321932413,
        0.055678870231219944,
        -0.17019359173926832,
        -0.10810896218020827,
        -0.08472774023142413,
        0.3024823147630001,
        0.11319164165115403,
        -0.20795104649998972,
        -0.04169002891452174,
        0.18890088186631024,
        0.7584280663949549,
        0.8148441164159886,
        -0.495862256392375,
        1.6522495639044383,
        -0.8453245783203946,
        -0.1008557249189716,
        0.48269208622806475,
        0.19313209922084462,
        -0.3869768563324563,
        -0.11451548042975225,
        0.36378933613657727,
        -0.8085046014105713,
        -0.07235352471046634,
        -1.0876703812138042,
        0.635569700259067,
        -0.4683825874744925,
        0.3138911673412958
      ],
      [
        -0.7476391889618184,
        0.6980099059079193,
        -0.3130732564222787,
        -0.40244811534163866,
        0.31912890678763156,
        -0.28338740434629256,
        -0.08170111138789989,
        0.6358307303894961,
        -0.08848165000153392,
        -0.019148129489234306,
        0.4061760804667678,
        -0.022939226639870833,
        -0.6497454069439214,
        0.022326246521738778,
        0.7355494221872192,
        0.02178232921498483,
        -0.22690489098465297,
        -0.1332024036751751,
        -0.003805275250315519,
        -0.09781737695757187,
        0.4633198327568813,
        0.2382928748091552,
        -0.12042192224668846,
        -0.13492095796895404,
        0.19523842182517936,
        0.5448112297212004,
        0.35566428345657297,
        -0.07404785008784158,
        -0.19462265102302434,
        -0.34641696393047755,
        -0.32842461736065737,
        0.5434229351310088
      ],
      [
        -0.19581009198470636,
        0.3060127964316825,
        -0.1976612934353432,
        -0.2281359391614738,
        0.19281975312439104,
        0.2877097154657701,
        -0.13880761416373716,
        0.30703642069339365,
        -0.019089609981067155,
        0.06999648444033242,
        0.34784736917324116,
        0.462788862103774,
        -0.40322390144567527,
        -0.01082675328529961,
        0.690423099025011,
        0.6204554315454054,
        0.6190078992610851,
        -0.06646725533567066,
        0.6906222497148551,
        -0.69701482802027,
        -0.4925078636318356,
        0.40860931035078496,
        0.09834625625718654,
        -0.368464637546712,
        0.004948421398870309,
        0.19738711818678964,
        -0.8281586058926119,
        -0.03179154942107275,
        -0.34217018262693205,
        0.01746289161480249,
        0.04574598266981499,
        0.001422773861248912
      ],
      [
        0.013423201376785503,
        0.15682473845497125,
        -0.32611427109589197,
        0.1007351306614209,
        0.057778042591645776,
        0.032443692312862815,
        0.016503792500686416,
        -0.936255966793752,
        -0.001926783379606883,
        0.05336676003864833,
        -0.39356315246904516,
        0.06324178164990879,
        -0.4511705852318129,
        -0.3084488712018376,
        -0.005116252181775245,
        -0.4721626076598481,
        -0.009834451701539166,
        0.10310880303763256,
        -0.09980392450766523,
        0.021425850851746628,
        0.4446311399605263,
        -0.21902492877346236,
        -0.4224242512597304,
        0.39988569229480536,
        0.2616210984736217,
        -0.32443268049721846,
        0.275815545727547,
        0.3018438209613975,
        0.36926703840510866,
        0.33542300707103195,
        -0.09816455168229923,
        -0.35455986240866755
      ],
      [
        0.20976398280934577,
        0.4246569786247605,
        -0.4522966869059365,
        -0.3089316623608762,
        0.523033941193225,
        0.13013878071554186,
        -0.060289161070829544,
        0.2548459540999095,
        -0.04989105880730601,
        0.023355464359357044,
        0.2360372103815639,
        -0.12614314944061938,
        0.1891254984467236,
        -0.006646727161261926,
        0.10107491408409382,
        0.18295196938136268,
        -0.16131024789940884,
        0.11386506050460758,
        0.48516369891984146,
        0.07754404903707278,
        -0.7969160180071684,
        0.4018338916864061,
        0.19627282862385895,
        0.012404559909631897,
        0.491410740808788,
        -0.15848742017293113,
        0.36002033953765417,
        0.30592557946196997,
        0.03714014529566195,
        0.17555904897352567,
        -0.8192262460809899,
        0.6280810114120317
      ],
      [
        0.271985643286272,
        -0.025102127289354455,
        0.47040748165489815,
        -0.14408085044239508,
        -0.09114406077231307,
        -0.09416750216357939,
        -0.27799198322221846,
        0.2655143239330012,
        0.016374953509982283,
        -0.03628059845657623,
        0.31826869248586587,
        0.28905019759277434,
        -0.27730641746369356,
        0.08718164206698621,
        -0.18733616914851547,
        0.07980545610708052,
        -0.011354087303531156,
        0.16270063034884175,
        -0.5453636734939332,
        0.22803038102415882,
        -0.2797195531867105,
        -0.5210067237768654,
        -0.2708901927089217,
        0.0660128873179178,
        0.24636778183248095,
        0.3787753348942974,
        0.3950684161149306,
        -0.22718594934836409,
        0.383242385193561,
        0.4506913780918531,
        0.9066738018471091,
        0.5904982252135514
      ],
      [
        0.6442158116835737,
        -0.22491056505165596,
        -0.1656258038610679,
        0.202549221350313,
        -0.24662931773227917,
        -0.09309462351308595,
        0.27576363175831164,
        -0.38773207547841665,
        0.13882813005185712,
        0.057928683963209236,
        -0.00739202579733746,
        0.3384413082104204,
        -0.07836398112421275,
        -0.4747430177253002,
        0.034299441961352595,
        0.19020887464486033,
        0.6031587042479559,
        -0.05740371203545613,
        0.19335944236232763,
        -0.20373346364509862,
        0.018601257411201017,
        0.3265201997836896,
        -0.11686376957849598,
        -0.06532276344075387,
        -0.03812328983819018,
        -0.031841730695733345,
        -0.2734313407191556,
        0.05404221779400894,
        -0.24403969056596417,
        -0.2697513675896119,
        -0.03148975976626,
        -0.36088977784691956
      ]
    ],
    "b2": [
      0.4663244681568948,
      -0.3003484573526713,
      0.5588872537434723,
      -2.1689288697229867,
      0.2526382270667661,
      0.3516406324922017,
      0.674028968895447,
      0.28510180309265815,
      -2.162106282154967,
      -0.4262082830933499,
      -0.4152191350329857,
      0.08054214220276466,
      0.16327997472260183,
      -0.09215679244327739,
      -0.6576739968349582,
      -0.04113880586764533,
      0.004164349435798779,
      0.2773688987580493,
      -0.4010003950844605,
      0.6691440525814432,
      0.5231770732280794,
      -0.47994687668991276,
      -0.48880046450423403,
      0.37808490506752235,
      0.4399696009329263,
      -0.3120220843451472,
      0.3247692673689649,
      -1.5511975023917621,
      0.5808583955622905,
      0.2680957663336545,
      0.37743457408864844,
      -0.46400555777805685
    ],
    "W3": [
      [
        -2.2090912967126384,
        4.13714575586751,
        -3.622185611247742
      ],
      [
        0.7154368669716823,
        -1.9044035648369173,
        0.6285633863276501
      ],
      [
        -5.891636899957588,
        0.8191407619691152,
        1.1313787162761717
      ],
      [
        0.25307879431260194,
        1.067883737311466,
        -1.2496002215957924
      ],
      [
        0.010215222868390553,
        -1.6055526821705022,
        2.434103737508907
      ],
      [
        -1.69607465060094,
        0.7217233493675298,
        0.47322589664089354
      ],
      [
        -1.5413343985383001,
        1.855857773375339,
        -0.4791455491882679
      ],
      [
        -0.1791264841151153,
        -1.8936229947423957,
        1.9937631099866902
      ],
      [
        0.7705642595149523,
        0.13878616754324666,
        -0.9439553578781961
      ],
      [
        0.39809628184501333,
        -0.47715256644172166,
        0.023029056509043633
      ],
      [
        0.7824391167593862,
        -0.5746099177895715,
        -0.12893558063629584
      ],
      [
        0.2901249043611168,
        0.9764162018855309,
        -1.6619150965447922
      ],
      [
        -2.6114276702264387,
        1.5504583552099265,
        0.28634713817162627
      ],
      [
        -0.0765227285327147,
        -1.473635935334708,
        1.1951557480961479
      ],
      [
        1.8790141361016666,
        -2.9379407373364286,
        -0.30749214736002345
      ],
      [
        0.8119647872222251,
        1.4216010471833902,
        -2.4148529046953664
      ],
      [
        0.42225663379375417,
        2.2134373588356437,
        -2.388736240630895
      ],
      [
        -1.3224045713917612,
        0.34894277777958665,
        0.5002307511684364
      ],
      [
        5.251526050600921,
        0.45002945975927855,
        -3.62990057307186
      ],
      [
        -0.6293028024192482,
        -0.8296685789183906,
        1.2190368161234582
      ],
      [
        -1.4001011681140347,
        2.011484336169149,
        -0.789518634426663
      ],
      [
        1.571916293302657,
        0.5047901327785237,
        -1.7084012441450267
      ],
      [
        8.647858494961751,
        -1.1316050924207075,
        -9.880251119775238
      ],
      [
        -1.1425871165219452,
        0.2079833783186732,
        0.7265158231173644
      ],
      [
        -0.2961078808345336,
        -1.2748097388611928,
        1.6065120452400126
      ],
      [
        1.536730929799696,
        0.16620375821341848,
        -0.7551183327596379
      ],
      [
        -2.8188618316810192,
        -0.1854289546147424,
        2.723112487649576
      ],
      [
        1.8103270750566134,
        -2.1776465958898683,
        0.31899371634834517
      ],
      [
        -1.8315203037946524,
        -0.17297407395681755,
        0.8439903129979306
      ],
      [
        -1.739840830444433,
        0.6538074879110471,
        1.068712036301636
      ],
      [
        -3.5119038428439024,
        1.8996254793519372,
        0.0065609871858902
      ],
      [
        1.30805299935204,
        -7.144803583370524,
        0.4631807004028651
      ]
    ],
    "b3": [
      -0.38090091215313826,
      0.24600564231212108,
      0.16535134121465905
    ],
    "feature_names": [
      "Cement",
      "Blast Furnace Slag",
      "Fly Ash",
      "Water",
      "Superplasticizer",
      "Coarse Aggregate",
      "Fine Aggregate",
      "Age (day)"
    ],
    "class_labels": [
      "Low Strength",
      "Medium Strength",
      "High Strength"
    ]
  }
}